0.009933368302881718
-0.007968088611960411
0.00740140350535512
-0.00388706149533391
0.001924492185935378
-0.004682089667767286
0.0051024965941905975
-0.014968429692089558
-0.0020742854103446007
0.002748676110059023
0.0007266612956300378
-0.005524550098925829
0.023097988218069077
-0.007009338587522507
0.0062486412934958935
-0.0005960370763204992
-0.012084443122148514
-0.004840154200792313
0.00264657917432487
0.002168328734114766
0.008357217535376549
0.005889241583645344
-0.0031489951070398092
0.0017912965267896652
-0.0007090415456332266
0.001874925452284515
-0.005656494293361902
0.008507833816111088
-5.434708873508498e-05
0.009565671905875206
-0.0003488103102426976
-0.003332175314426422
-0.0024629044346511364
0.00969144981354475
-0.006460839882493019
0.002840421861037612
0.0012498883297666907
0.007549141068011522
0.00022532109869644046
0.0014141785213723779
-0.004162444733083248
0.002198709174990654
0.002118260832503438
0.0031442027539014816
-0.0009422713192179799
-0.01057668961584568
-0.0062001291662454605
-0.012582178227603436
-0.0007299038115888834
-0.0042572543025016785
-0.008184786885976791
-0.00500168651342392
0.001011241809464991
-0.0017971319612115622
0.0009011697839014232
0.004423482809215784
-0.0032632506918162107
0.006898376625031233
-0.002834971994161606
0.002271115081384778
0.005844809114933014
-0.002128964988514781
0.0013414178974926472
0.0008322868961840868
0.004286244045943022
-0.0033068491611629725
-0.0006436015828512609
0.0026857417542487383
-0.0053134579211473465
-0.0007940078503452241
0.0022363935131579638
-0.00492116529494524
-0.007646934594959021
-4.740426447824575e-05
-0.001967841060832143
0.010553390718996525
-0.007542270235717297
0.006572755519300699
0.001465632114559412
0.003292527049779892
-0.01188360620290041
-0.000379825389245525
-0.0005630551604554057
-0.015063353814184666
-0.0020135496743023396
0.0031842978205531836
0.001776033896021545
0.004030098207294941
0.0049753147177398205
-0.004283772315829992
0.0008796220645308495
-0.002113422378897667
-0.0017558046383783221
-0.006180839147418737
-0.010885215364396572
-0.0021276988554745913
0.0009569217218086123
-0.00617565680295229
0.008605181239545345
-0.0011540403356775641
-0.017954612150788307
0.011170228011906147
0.0012776165967807174
0.00025872583501040936
0.0020274315029382706
0.006690630689263344
-0.002506385324522853
-0.0015700473450124264
0.009272588416934013
-0.001833779038861394
0.011194201186299324
-0.004929215181618929
-0.00395803852006793
-0.003469923511147499
0.0040974244475364685
0.007794181816279888
0.0016941569047048688
-0.00330435112118721
0.006944926921278238
-0.00388523587025702
-0.0049718935042619705
0.014712638221681118
0.0005449115997180343
0.0007374768028967083
-0.001416887971572578
0.009893632493913174
0.005213435273617506
0.01579715870320797
